{"bias": [[-0.8453640585361802, 3.3769165672420507, 1.3500437515220536, 1.0234769722676018, -0.36443780932886183, 2.7074259266146985, 2.2952234163338314, 2.512691345282926, 1.8679111437651192, 1.966298358505889], [-0.05989171353340707, 2.052542445076216, -0.08589613760503145, 1.4839375691625627, -0.4217296186600247], [2.037216073706068]], "hidden_activation": "relu", "output_activation": "identity", "type": "MLPRegressor", "weights": [[0.2298757590086254, -0.07947018574840556, -0.26587302182063594, 0.054141659213717275, 0.13003036059868178, -0.0540315748166141, -0.08627945714906561, 0.21819692752833003, -0.2666494247914007, 0.045659472303839814, 0.43333599708540566, -0.06740561865274036, 0.27848830996607, -0.6218937853670152, 0.35692692569629114, -2.720055415962696, -0.3728589087591536, 0.7569184144164423, 0.9447963251814403, 1.5123120246266626, 0.4981551421666901, -1.8555557450547182, 0.655032633601002, -0.7076641766050136, 1.9445715457597073, 2.7837336641607977, 1.4806185429891208, -0.558130307154737, 1.9872797575083367, 0.09765215009090786, 0.8132830095922164, -0.24457467915218667, 0.3840629858909409, 0.5730383548870966, 0.8892847885855375, 1.1266003230235115, 0.4329138846931971, 0.23014112371489892, 1.434336760634081, 1.44020942831264, 0.05416959211269702, 0.08824338786639117, -0.16105880641044934, -0.12575137312307078, 0.05799535970331465, -0.07678761471319104, 0.0016655406979591884, 0.10467834815392758, -0.04162604701100708, -0.16215050421312716, -0.004170813580777014, -0.2852774773787512, 2.429535828218516, -0.27516017845848306, 0.40918149394577397, -0.5285631890721865, 0.39641515027427104, -0.6563202034442551, 0.6017581995628175, 0.067682126023998, -0.8999474039248209, -0.7997849844943921, 0.8113071613615324, -1.9028456360890091, 0.7736899860897489, -1.4560035905571618, -2.3409089551054296, 0.6834218971037922, 1.4605754473880392, 0.6958607083485454, 1.1744657945165868, -0.7352467286365544, 0.22690194741723604, 0.41288029593867975, 0.7122521137873304, 0.4255350297174819, 2.2626900769776483, -1.070639315962897, 0.3037924069346812, 0.5353518322239693, -2.8937611061687534, -0.04835973352080556, 1.0240629076846757, 0.05895894972105667, 0.8796047999464874, -0.448374908716685, -0.9177665089015291, -2.695708393397171, 0.8986931481117709, 0.16060815981534718, 0.764192667365179, -0.5850871039984644, 1.2198143893688504, -0.47038416743015293, -1.8781770473078774, 0.08513808116160287, -0.18659551907742025, -0.1758881275502751, -1.6511873347227275, 0.38122742233019613], [-0.31349701394377905, 0.2803774743616395, -1.390162226499129, 0.25078083501877774, -0.07015588900725142, 0.9018853816603782, 0.0027199659898310344, -0.9359325507917646, -0.34583530353965847, -0.5075174651299466, -0.4076325373255126, 2.1596821465100695, 2.1021592376454707, 1.6292120896280362, -0.3265493789004934, 1.7391393531002097, 2.3289200151683516, 1.7066628419949614, 1.8007528253640956, 1.9670374081008883, 4.003990870323525e-149, -5.509250926851284e-184, 3.2937226450055895e-208, -4.0407492022345347e-196, -2.3918170724034348e-197, -2.4233717403157424e-189, -1.5621903076151329e-177, -2.8245369622090733e-204, 6.078808672079476e-134, -5.044818360785135e-177, -0.5137131009876487, 2.0426555079345072, 1.3843310741968198, 0.6348794841132309, 0.03325399166954666, 2.1141231109073675, 1.6418207807763316, 1.964828786584505, 1.0736472355912823, 2.3562498546022903, 5.0226995349942457e-200, 1.8032248841332914e-134, -3.4122782372577966e-156, -7.068424038384056e-120, -7.564895646136445e-154, 2.776082593581578e-118, -1.5908611680382057e-177, -2.526282582847134e-166, 1.323003478249805e-112, -2.536948161466902e-122], [-2.1082008351077293, 1.8695781145080463, 6.540692793911718e-172, 1.6320813885392311, 7.358091061265352e-113]], "numRows": [10, 10, 5], "numColumns": [10, 5, 1], "scaler": "ZscoreScaler", "mean": [0.0016093916879108083, 0.0008126469683464309, 0.0007115094945761331, -0.000863849096873578, 0.0008510123081245038, -0.0006262084468483306, -0.00013263540407057093, 0.0011982044124700514, 0.0017478715085536406, 0.0008324758409195463], "std": [0.04878066830986607, 0.047520013661220176, 0.048390001525277525, 0.04682926122291539, 0.04765598917970465, 0.04752125790964274, 0.04734124388819837, 0.047567096853185685, 0.048034863012289764, 0.0470705546029022], "inputs": ["s6", "s1", "s5", "s3", "bp", "sex", "age", "s4", "bmi", "s2"], "target": "target", "bounds": {"s6": [-0.137767225690012, 0.135611830689079], "s1": [-0.126780669916514, 0.152537760298315], "s5": [-0.126097385560409, 0.133598980013008], "s3": [-0.10230705051742, 0.177497422593197], "bp": [-0.112399602060758, 0.132044217194516], "sex": [-0.044641636506989, 0.0506801187398187], "age": [-0.107225631607358, 0.110726675453815], "s4": [-0.076394503750001, 0.185234443260194], "bmi": [-0.0902752958985185, 0.17055522598066], "s2": [-0.115613065979398, 0.198787989657293]}, "model_type": "sklearn_MLP"}