{"bias": [[1.8559008609221832, 2.0976861563816813, 1.6012716900106774, 0.4061474373772139, -0.3953386152810649, 3.1601292522685354, 2.2337010152802312, 1.886744338742313, 2.770252540722014, 1.303966361791165], [1.6471710256614365, 1.5461739193693051, 0.9129299076052794, -1.0885576995597765, -2.6140577552772934], [1.758992042953812]], "hidden_activation": "relu", "output_activation": "identity", "type": "MLPRegressor", "weights": [[1.1559102962810324, 1.5141180766036966, -2.6920006974886412, -0.21578194637295775, 2.389008795897517, -1.037640317327388, 0.8743128247368972, -0.14199908474492617, -0.5804256542592183, 0.6454107736577953, 0.85455337996102, 0.8121742377945234, 0.5501721207487005, -0.3369325830098455, 2.382180415570876, -1.3467601102912652, 0.1907718035469233, 1.345250277584503, 2.7121858235218372, 0.35129142427127574, 0.6408169417602997, 1.8060925355537645, -0.4872882182373592, -0.09561352094511656, -1.5149790339557334, -0.26969312316063415, -0.222194443870333, -2.181513392129231, 0.41264457268751187, 0.7960864594811914, 1.1654901799037354, -0.4874753628017351, 1.1447638504006632, -2.6339792491472602, -1.7035689521515687, -2.09586269107267, 0.7542200487668073, -1.0001591909218082, -1.4867394426863334, 0.17127069078525897, 0.00887191352595637, -0.04735887775488929, -0.3902240750223046, -0.2566977433287357, -0.019268818735498513, 0.15273379909647808, 0.02887442519909724, -0.1884725553210309, 0.04640512556265312, 0.05124212793116136, 1.4178336995670056, -0.3013715548793475, -0.06921251136644371, -0.8782228725396048, 0.16713890236656845, -0.7555658103001205, 2.079290330000571, -0.17257826932131856, -0.5579594354357396, -0.2660855459988445, -1.0655859146873665, -0.4181533914938554, -1.655805624763891, 0.6074337023388755, 0.16680718981120574, -0.26610148825110114, 1.1458830994263804, -0.6689904680137199, -1.1307622315345434, 0.5045513027000035, -0.8253507168917813, -0.1694017559798382, 0.06812586153712215, -0.7936981785325368, -1.4492635503799371, 0.07207267427080856, 0.6055062406242806, -2.4281527403899483, 0.3113855601887172, 1.412425566208723, 0.4082265722459102, 0.1755626397633359, -1.9453442144300277, 0.2954145715141576, 1.0098193554019115, -0.4573565612446271, 1.4510030020594724, 2.1152804475837756, -0.20602651729510457, 0.8260934886676126, 2.3460373062767172, 1.8831656231152936, 0.8980680934087585, 0.45885177270439853, -0.2730318732842861, 0.18971111714724964, 0.31973746640831446, 1.394752083441785, 0.9188236834453456, 1.5482744362297174], [1.3540185171899937, 1.530939248587917, 1.5799276163598663, 1.379903862693811, -0.38214790895089235, 0.8117943446709286, 0.6494475165320316, 2.726194351923049, 1.4883042063574432, 1.34276656982166, 1.2967248171109225, 1.3962109817254535, 0.6032232763530767, 1.7011736625575105, 0.3005358204254105, 0.9028948695818285, 0.467598429845605, 1.8327520893872857, 1.5837366581921395, 0.9017149190269999, 1.3796774087692112, 1.6072418136237325, 0.9570588542960244, 1.8231669495056047, -0.24520999844197985, 1.4885734356507458, 0.6447007109578611, 1.621662115179354, 1.9102132152157087, 0.9020333689074336, 2.1644455234442264, -0.16392202169502246, -2.685930015692943, 0.37992977435201153, 0.4910287157043571, 0.5354968045354849, -2.729679548626499, 0.05292452202795153, 0.488452798570856, -2.331243913085704, 0.14628993144356556, 0.371705346557659, 0.02077975862351775, -3.405211536517716, -0.6008575664011324, -4.054605849347764, 0.6875216139155603, -1.2254810544768155, 0.010649205440303655, 1.8898780513621494], [1.452096170142875, 1.3956363662471987, 1.8348922251396949, -6.857283723538228, -6.553152841254772]], "numRows": [10, 10, 5], "numColumns": [10, 5, 1], "scaler": "ZscoreScaler", "mean": [0.0017478715085536406, 0.0008510123081245038, 0.0011982044124700514, -0.000863849096873578, -0.00013263540407057093, 0.0008126469683464309, 0.0007115094945761331, -0.0006262084468483306, 0.0016093916879108083, 0.0008324758409195463], "std": [0.048034863012289764, 0.04765598917970465, 0.047567096853185685, 0.04682926122291539, 0.04734124388819837, 0.047520013661220176, 0.048390001525277525, 0.04752125790964274, 0.04878066830986607, 0.0470705546029022], "inputs": ["bmi", "bp", "s4", "s3", "age", "s1", "s5", "sex", "s6", "s2"], "target": "target", "bounds": {"bmi": [-0.0902752958985185, 0.17055522598066], "bp": [-0.112399602060758, 0.132044217194516], "s4": [-0.076394503750001, 0.185234443260194], "s3": [-0.10230705051742, 0.177497422593197], "age": [-0.107225631607358, 0.110726675453815], "s1": [-0.126780669916514, 0.152537760298315], "s5": [-0.126097385560409, 0.133598980013008], "sex": [-0.044641636506989, 0.0506801187398187], "s6": [-0.137767225690012, 0.135611830689079], "s2": [-0.115613065979398, 0.198787989657293]}, "model_type": "sklearn_MLP"}