{"bias": [[1.7701991209867358, 1.411981240567378, 0.9978931945216702, 1.8232141073534962, 1.352310760031065, 2.2865060483875195, -2.130912602023314, 0.618567767072155, 1.6523236058974684, 0.9798468097098867], [2.474143117220545, 0.7123247046132674, 1.1348903156952597, -0.8813227781484358, 0.5895621215919955], [0.5884252171126867]], "hidden_activation": "relu", "output_activation": "identity", "type": "MLPRegressor", "weights": [[0.3966109687829581, 0.3685285636705194, 0.3310843927349822, 1.2352387559400049, -1.4217522013733794, 0.06290107255470415, 1.3892329852077785, 0.9372880267618874, -1.097607649445978, 0.40056887237803607, -0.021070449980434395, 0.01283775363548449, 0.315529096513919, 0.19019102108131594, -0.13585204950018348, 0.4640503800767664, 0.7080562516388175, -0.34430723717777184, -0.4317731432991623, 1.8953144270687339, 2.421847360198574, 0.8515443687993753, 0.831811641647724, 0.47793598745498295, 0.6306881059214697, -0.46508460747840197, 2.3922692485611172, 1.2332147523681183, -0.8623510963785426, 1.6620670015769876, -2.241116457169215, 0.08874586033774585, -0.3947643966750579, 0.28086503588667283, -1.9684499056327822, 0.39710106120618677, -0.016008407667859065, -0.2325471276492705, -0.13064766393570978, 1.0163629942683214, -0.6049528959780498, -0.5923574447787499, -0.46393176902200184, 1.291537670864216, 0.7274625881511223, -1.7048132456461234, -1.9811522207651857, -1.9221516284178612, -2.1545012881678036, 0.3356306180421149, 0.3408343398841232, 1.3707400381355477, 0.5139506795592707, 0.4765521357101461, 0.22720927063630644, -0.021787621383940442, -0.7893135867471893, 1.2837406810273302, -1.4599899383433976, 2.158785392930163, -0.9876565533212838, -0.028171918412926166, -0.9958196529839896, 0.3723789259008652, -1.4797061805411396, 0.4963841200631651, -0.8672999642239184, -2.5598656667629167, -0.5143629224521992, -1.6314319413914469, -1.7119409356742723, 1.9123737477080525, 1.1016927970410315, 0.1614347384327347, 0.5647281799178661, 0.028611632583295257, -0.8144459128994954, -1.5871991303951856, -0.8715142447242343, -0.43763552949399553, 1.2712427568843252, -0.8549567331217005, -0.6174256080654287, 0.7854824703978217, -0.41140002425697675, 0.1988715672010738, -0.5257044721679227, -3.196177881187057, -0.1783751497162481, -1.1141733597262444, -0.6433641570083737, 0.9631526643228391, 0.8834185170398463, 1.743441881794825, 0.33378961821211917, -0.5926916684724276, -1.1040198643228716, -0.4350298497591581, -0.16860237526666905, 0.7502149414767975], [-2.07017899121569, 1.3460984542747867, -3.9089783390401043, -2.1732070201122675, 1.1986129386881705, 1.489608555535482, -1.6944605874907395, 0.10867081392191066, 1.4129019659813964, 0.3756000039232276, 2.102076490152054, 0.4833288203182126, 0.923893157403936, 0.7920358243839934, 1.8519321494430192, 1.5028297230139194, -2.4553379961627075, 1.592073363682144, 2.1061527540871237, 1.5552561357794354, 2.2557714159823568, 1.6036618069912227, 0.35514080822294725, 1.3632983325192392, 1.6792988310471693, 1.5621341218104017, -2.6356836769750105, 1.631864795451139, 2.0817509332464987, 1.3723713401653879, -5.891845841220153, -6.241373469738902, -3.7005715810950655, -2.251046847435741, 1.2185509397083583, 0.82656891792964, -3.913918866382593, -5.54464527550446, 1.8476974068970557, 2.362734152480275, 1.4631652928844738, 0.8446283762553715, 1.132105784616558, 0.8556618852089172, 1.9467470468367043, 1.8234851674245223, -2.059041685654247, 1.6139454481596809, 1.8159140768101665, 1.0844397298838142], [-4.998887349566547, 1.6390840533751896, 1.8517377213371333, 7.158046031076065, 2.5829266836326332]], "numRows": [10, 10, 5], "numColumns": [10, 5, 1], "scaler": "ZscoreScaler", "mean": [0.0016093916879108083, 0.0017478715085536406, 0.0008510123081245038, 0.0008324758409195463, 0.0011982044124700514, -0.000863849096873578, -0.00013263540407057093, -0.0006262084468483306, 0.0008126469683464309, 0.0007115094945761331], "std": [0.04878066830986607, 0.048034863012289764, 0.04765598917970465, 0.0470705546029022, 0.047567096853185685, 0.04682926122291539, 0.04734124388819837, 0.04752125790964274, 0.047520013661220176, 0.048390001525277525], "inputs": ["s6", "bmi", "bp", "s2", "s4", "s3", "age", "sex", "s1", "s5"], "target": "target", "bounds": {"s6": [-0.137767225690012, 0.135611830689079], "bmi": [-0.0902752958985185, 0.17055522598066], "bp": [-0.112399602060758, 0.132044217194516], "s2": [-0.115613065979398, 0.198787989657293], "s4": [-0.076394503750001, 0.185234443260194], "s3": [-0.10230705051742, 0.177497422593197], "age": [-0.107225631607358, 0.110726675453815], "sex": [-0.044641636506989, 0.0506801187398187], "s1": [-0.126780669916514, 0.152537760298315], "s5": [-0.126097385560409, 0.133598980013008]}, "model_type": "sklearn_MLP"}